#pragma once
#include <cstdarg>
namespace Eloquent {
    namespace ML {
        namespace Port {
            class RandomForest {
                public:
                    /**
                    * Predict class for features vector
                    */
                    int predict(float *x) {
                        uint8_t votes[10] = { 0 };
                        // tree #1
                        if (x[2] <= 5.5) {
                            if (x[1] <= 2.5) {
                                if (x[6] <= 7.523999929428101) {
                                    if (x[2] <= 2.5) {
                                        if (x[6] <= 3.815999984741211) {
                                            votes[1] += 1;
                                        }

                                        else {
                                            if (x[3] <= 5.0) {
                                                votes[2] += 1;
                                            }

                                            else {
                                                if (x[6] <= 4.212000131607056) {
                                                    votes[2] += 1;
                                                }

                                                else {
                                                    if (x[7] <= 1004.1000061035156) {
                                                        votes[1] += 1;
                                                    }

                                                    else {
                                                        if (x[7] <= 1005.5) {
                                                            votes[2] += 1;
                                                        }

                                                        else {
                                                            if (x[6] <= 5.778000116348267) {
                                                                votes[4] += 1;
                                                            }

                                                            else {
                                                                if (x[2] <= 1.5) {
                                                                    votes[1] += 1;
                                                                }

                                                                else {
                                                                    votes[1] += 1;
                                                                }
                                                            }
                                                        }
                                                    }
                                                }
                                            }
                                        }
                                    }

                                    else {
                                        if (x[4] <= 15.75) {
                                            votes[1] += 1;
                                        }

                                        else {
                                            if (x[8] <= 835.0999755859375) {
                                                if (x[8] <= 0.5000000149011612) {
                                                    votes[1] += 1;
                                                }

                                                else {
                                                    if (x[2] <= 4.5) {
                                                        if (x[2] <= 3.5) {
                                                            votes[2] += 1;
                                                        }

                                                        else {
                                                            if (x[0] <= 2023.5) {
                                                                if (x[8] <= 27.400000751018524) {
                                                                    votes[2] += 1;
                                                                }

                                                                else {
                                                                    votes[1] += 1;
                                                                }
                                                            }

                                                            else {
                                                                votes[2] += 1;
                                                            }
                                                        }
                                                    }

                                                    else {
                                                        if (x[7] <= 1002.6999816894531) {
                                                            votes[2] += 1;
                                                        }

                                                        else {
                                                            if (x[4] <= 20.045000076293945) {
                                                                votes[1] += 1;
                                                            }

                                                            else {
                                                                votes[4] += 1;
                                                            }
                                                        }
                                                    }
                                                }
                                            }

                                            else {
                                                if (x[7] <= 1010.1499938964844) {
                                                    if (x[7] <= 1005.75) {
                                                        if (x[6] <= 3.528000056743622) {
                                                            votes[7] += 1;
                                                        }

                                                        else {
                                                            votes[7] += 1;
                                                        }
                                                    }

                                                    else {
                                                        votes[5] += 1;
                                                    }
                                                }

                                                else {
                                                    votes[1] += 1;
                                                }
                                            }
                                        }
                                    }
                                }

                                else {
                                    if (x[8] <= 28.050000369548798) {
                                        if (x[7] <= 1004.5) {
                                            votes[3] += 1;
                                        }

                                        else {
                                            votes[2] += 1;
                                        }
                                    }

                                    else {
                                        if (x[8] <= 1431.75) {
                                            if (x[8] <= 201.70000457763672) {
                                                if (x[4] <= 24.695000648498535) {
                                                    if (x[4] <= 22.144999504089355) {
                                                        votes[2] += 1;
                                                    }

                                                    else {
                                                        if (x[4] <= 23.15999984741211) {
                                                            votes[5] += 1;
                                                        }

                                                        else {
                                                            votes[4] += 1;
                                                        }
                                                    }
                                                }

                                                else {
                                                    votes[0] += 1;
                                                }
                                            }

                                            else {
                                                if (x[0] <= 2023.5) {
                                                    if (x[4] <= 18.06500005722046) {
                                                        if (x[5] <= 74.31499862670898) {
                                                            votes[1] += 1;
                                                        }

                                                        else {
                                                            if (x[6] <= 10.061999797821045) {
                                                                votes[1] += 1;
                                                            }

                                                            else {
                                                                votes[2] += 1;
                                                            }
                                                        }
                                                    }

                                                    else {
                                                        votes[2] += 1;
                                                    }
                                                }

                                                else {
                                                    if (x[5] <= 68.09000015258789) {
                                                        if (x[4] <= 18.609999656677246) {
                                                            votes[2] += 1;
                                                        }

                                                        else {
                                                            if (x[2] <= 2.5) {
                                                                votes[5] += 1;
                                                            }

                                                            else {
                                                                votes[1] += 1;
                                                            }
                                                        }
                                                    }

                                                    else {
                                                        votes[5] += 1;
                                                    }
                                                }
                                            }
                                        }

                                        else {
                                            if (x[0] <= 2023.5) {
                                                votes[1] += 1;
                                            }

                                            else {
                                                votes[4] += 1;
                                            }
                                        }
                                    }
                                }
                            }

                            else {
                                if (x[4] <= 28.0) {
                                    if (x[0] <= 2023.5) {
                                        if (x[5] <= 69.96999740600586) {
                                            if (x[5] <= 60.30999946594238) {
                                                if (x[2] <= 4.5) {
                                                    if (x[4] <= 24.795000076293945) {
                                                        votes[1] += 1;
                                                    }

                                                    else {
                                                        votes[1] += 1;
                                                    }
                                                }

                                                else {
                                                    votes[4] += 1;
                                                }
                                            }

                                            else {
                                                votes[1] += 1;
                                            }
                                        }

                                        else {
                                            if (x[8] <= 1566.25) {
                                                if (x[1] <= 3.5) {
                                                    if (x[4] <= 16.994999885559082) {
                                                        votes[2] += 1;
                                                    }

                                                    else {
                                                        if (x[3] <= 5.0) {
                                                            votes[1] += 1;
                                                        }

                                                        else {
                                                            votes[1] += 1;
                                                        }
                                                    }
                                                }

                                                else {
                                                    if (x[1] <= 11.5) {
                                                        if (x[2] <= 1.5) {
                                                            if (x[1] <= 4.5) {
                                                                votes[2] += 1;
                                                            }

                                                            else {
                                                                if (x[5] <= 96.0) {
                                                                    if (x[6] <= 2.2139999866485596) {
                                                                        votes[5] += 1;
                                                                    }

                                                                    else {
                                                                        votes[4] += 1;
                                                                    }
                                                                }

                                                                else {
                                                                    votes[5] += 1;
                                                                }
                                                            }
                                                        }

                                                        else {
                                                            if (x[7] <= 997.25) {
                                                                if (x[8] <= 0.4000000059604645) {
                                                                    votes[4] += 1;
                                                                }

                                                                else {
                                                                    if (x[2] <= 3.5) {
                                                                        if (x[6] <= 4.302000045776367) {
                                                                            votes[4] += 1;
                                                                        }

                                                                        else {
                                                                            if (x[1] <= 8.0) {
                                                                                votes[5] += 1;
                                                                            }

                                                                            else {
                                                                                if (x[4] <= 25.289999961853027) {
                                                                                    votes[4] += 1;
                                                                                }

                                                                                else {
                                                                                    votes[5] += 1;
                                                                                }
                                                                            }
                                                                        }
                                                                    }

                                                                    else {
                                                                        if (x[7] <= 994.4499816894531) {
                                                                            if (x[1] <= 5.0) {
                                                                                votes[4] += 1;
                                                                            }

                                                                            else {
                                                                                votes[5] += 1;
                                                                            }
                                                                        }

                                                                        else {
                                                                            votes[5] += 1;
                                                                        }
                                                                    }
                                                                }
                                                            }

                                                            else {
                                                                if (x[7] <= 1002.5500183105469) {
                                                                    if (x[3] <= 13.0) {
                                                                        if (x[8] <= 108.89999693632126) {
                                                                            if (x[7] <= 1000.8999938964844) {
                                                                                votes[4] += 1;
                                                                            }

                                                                            else {
                                                                                if (x[8] <= 0.8499999940395355) {
                                                                                    votes[4] += 1;
                                                                                }

                                                                                else {
                                                                                    votes[5] += 1;
                                                                                }
                                                                            }
                                                                        }

                                                                        else {
                                                                            votes[5] += 1;
                                                                        }
                                                                    }

                                                                    else {
                                                                        if (x[7] <= 1001.6000061035156) {
                                                                            votes[4] += 1;
                                                                        }

                                                                        else {
                                                                            if (x[6] <= 4.48199987411499) {
                                                                                votes[5] += 1;
                                                                            }

                                                                            else {
                                                                                votes[4] += 1;
                                                                            }
                                                                        }
                                                                    }
                                                                }

                                                                else {
                                                                    votes[5] += 1;
                                                                }
                                                            }
                                                        }
                                                    }

                                                    else {
                                                        if (x[7] <= 1009.0999755859375) {
                                                            if (x[8] <= 778.5499877929688) {
                                                                votes[1] += 1;
                                                            }

                                                            else {
                                                                votes[5] += 1;
                                                            }
                                                        }

                                                        else {
                                                            if (x[5] <= 81.84500122070312) {
                                                                if (x[6] <= 10.854000091552734) {
                                                                    votes[2] += 1;
                                                                }

                                                                else {
                                                                    votes[0] += 1;
                                                                }
                                                            }

                                                            else {
                                                                if (x[6] <= 8.675999641418457) {
                                                                    votes[2] += 1;
                                                                }

                                                                else {
                                                                    votes[1] += 1;
                                                                }
                                                            }
                                                        }
                                                    }
                                                }
                                            }

                                            else {
                                                if (x[7] <= 998.8999938964844) {
                                                    votes[4] += 1;
                                                }

                                                else {
                                                    votes[4] += 1;
                                                }
                                            }
                                        }
                                    }

                                    else {
                                        if (x[1] <= 4.5) {
                                            if (x[7] <= 1006.1500244140625) {
                                                if (x[6] <= 5.940000057220459) {
                                                    votes[4] += 1;
                                                }

                                                else {
                                                    if (x[5] <= 92.125) {
                                                        if (x[6] <= 6.210000038146973) {
                                                            votes[5] += 1;
                                                        }

                                                        else {
                                                            votes[4] += 1;
                                                        }
                                                    }

                                                    else {
                                                        votes[5] += 1;
                                                    }
                                                }
                                            }

                                            else {
                                                if (x[5] <= 70.59499740600586) {
                                                    if (x[7] <= 1012.3500061035156) {
                                                        votes[1] += 1;
                                                    }

                                                    else {
                                                        if (x[3] <= 10.0) {
                                                            if (x[7] <= 1015.3999938964844) {
                                                                votes[2] += 1;
                                                            }

                                                            else {
                                                                votes[1] += 1;
                                                            }
                                                        }

                                                        else {
                                                            votes[2] += 1;
                                                        }
                                                    }
                                                }

                                                else {
                                                    votes[1] += 1;
                                                }
                                            }
                                        }

                                        else {
                                            if (x[6] <= 8.657999992370605) {
                                                if (x[5] <= 97.65499877929688) {
                                                    if (x[5] <= 93.27999877929688) {
                                                        votes[4] += 1;
                                                    }

                                                    else {
                                                        if (x[2] <= 1.5) {
                                                            votes[5] += 1;
                                                        }

                                                        else {
                                                            if (x[8] <= 0.75) {
                                                                if (x[4] <= 26.80500030517578) {
                                                                    votes[6] += 1;
                                                                }

                                                                else {
                                                                    votes[5] += 1;
                                                                }
                                                            }

                                                            else {
                                                                if (x[1] <= 7.0) {
                                                                    votes[4] += 1;
                                                                }

                                                                else {
                                                                    votes[6] += 1;
                                                                }
                                                            }
                                                        }
                                                    }
                                                }

                                                else {
                                                    if (x[8] <= 0.6500000059604645) {
                                                        votes[5] += 1;
                                                    }

                                                    else {
                                                        votes[5] += 1;
                                                    }
                                                }
                                            }

                                            else {
                                                if (x[5] <= 86.43499755859375) {
                                                    if (x[5] <= 75.65499877929688) {
                                                        votes[4] += 1;
                                                    }

                                                    else {
                                                        votes[5] += 1;
                                                    }
                                                }

                                                else {
                                                    votes[0] += 1;
                                                }
                                            }
                                        }
                                    }
                                }

                                else {
                                    if (x[6] <= 7.812000036239624) {
                                        if (x[7] <= 993.25) {
                                            if (x[1] <= 7.5) {
                                                if (x[8] <= 67.64999771118164) {
                                                    if (x[1] <= 5.5) {
                                                        votes[7] += 1;
                                                    }

                                                    else {
                                                        votes[8] += 1;
                                                    }
                                                }

                                                else {
                                                    if (x[8] <= 85.25) {
                                                        votes[4] += 1;
                                                    }

                                                    else {
                                                        if (x[8] <= 185.95000457763672) {
                                                            votes[7] += 1;
                                                        }

                                                        else {
                                                            if (x[1] <= 5.5) {
                                                                votes[7] += 1;
                                                            }

                                                            else {
                                                                votes[8] += 1;
                                                            }
                                                        }
                                                    }
                                                }
                                            }

                                            else {
                                                if (x[3] <= 16.5) {
                                                    if (x[8] <= 629.0500183105469) {
                                                        votes[9] += 1;
                                                    }

                                                    else {
                                                        votes[8] += 1;
                                                    }
                                                }

                                                else {
                                                    if (x[8] <= 36.89999961853027) {
                                                        if (x[6] <= 2.663999915122986) {
                                                            votes[8] += 1;
                                                        }

                                                        else {
                                                            votes[9] += 1;
                                                        }
                                                    }

                                                    else {
                                                        if (x[4] <= 29.2450008392334) {
                                                            votes[6] += 1;
                                                        }

                                                        else {
                                                            if (x[0] <= 2023.5) {
                                                                votes[8] += 1;
                                                            }

                                                            else {
                                                                if (x[2] <= 4.5) {
                                                                    votes[7] += 1;
                                                                }

                                                                else {
                                                                    votes[8] += 1;
                                                                }
                                                            }
                                                        }
                                                    }
                                                }
                                            }
                                        }

                                        else {
                                            if (x[8] <= 1807.8999633789062) {
                                                if (x[3] <= 16.5) {
                                                    if (x[8] <= 152.29999923706055) {
                                                        if (x[7] <= 996.5499877929688) {
                                                            votes[8] += 1;
                                                        }

                                                        else {
                                                            votes[9] += 1;
                                                        }
                                                    }

                                                    else {
                                                        votes[8] += 1;
                                                    }
                                                }

                                                else {
                                                    if (x[0] <= 2023.5) {
                                                        if (x[5] <= 96.65499877929688) {
                                                            if (x[7] <= 994.9500122070312) {
                                                                if (x[7] <= 994.25) {
                                                                    votes[7] += 1;
                                                                }

                                                                else {
                                                                    if (x[1] <= 6.5) {
                                                                        votes[8] += 1;
                                                                    }

                                                                    else {
                                                                        votes[8] += 1;
                                                                    }
                                                                }
                                                            }

                                                            else {
                                                                votes[7] += 1;
                                                            }
                                                        }

                                                        else {
                                                            votes[5] += 1;
                                                        }
                                                    }

                                                    else {
                                                        if (x[7] <= 996.3999938964844) {
                                                            votes[8] += 1;
                                                        }

                                                        else {
                                                            if (x[5] <= 87.09500122070312) {
                                                                votes[7] += 1;
                                                            }

                                                            else {
                                                                votes[8] += 1;
                                                            }
                                                        }
                                                    }
                                                }
                                            }

                                            else {
                                                if (x[5] <= 47.46999931335449) {
                                                    votes[7] += 1;
                                                }

                                                else {
                                                    votes[7] += 1;
                                                }
                                            }
                                        }
                                    }

                                    else {
                                        if (x[5] <= 71.40499877929688) {
                                            if (x[6] <= 10.961999893188477) {
                                                if (x[8] <= 2860.8999633789062) {
                                                    votes[8] += 1;
                                                }

                                                else {
                                                    votes[7] += 1;
                                                }
                                            }

                                            else {
                                                if (x[2] <= 1.5) {
                                                    if (x[1] <= 6.5) {
                                                        votes[5] += 1;
                                                    }

                                                    else {
                                                        votes[7] += 1;
                                                    }
                                                }

                                                else {
                                                    votes[7] += 1;
                                                }
                                            }
                                        }

                                        else {
                                            if (x[7] <= 994.8999938964844) {
                                                if (x[8] <= 244.69999313354492) {
                                                    if (x[7] <= 990.5) {
                                                        votes[7] += 1;
                                                    }

                                                    else {
                                                        votes[0] += 1;
                                                    }
                                                }

                                                else {
                                                    if (x[8] <= 571.75) {
                                                        votes[8] += 1;
                                                    }

                                                    else {
                                                        votes[8] += 1;
                                                    }
                                                }
                                            }

                                            else {
                                                if (x[4] <= 31.230000495910645) {
                                                    if (x[7] <= 999.6000061035156) {
                                                        if (x[8] <= 2196.800048828125) {
                                                            votes[8] += 1;
                                                        }

                                                        else {
                                                            votes[7] += 1;
                                                        }
                                                    }

                                                    else {
                                                        votes[7] += 1;
                                                    }
                                                }

                                                else {
                                                    if (x[7] <= 996.25) {
                                                        if (x[6] <= 10.889999866485596) {
                                                            votes[8] += 1;
                                                        }

                                                        else {
                                                            votes[9] += 1;
                                                        }
                                                    }

                                                    else {
                                                        if (x[0] <= 2023.5) {
                                                            votes[7] += 1;
                                                        }

                                                        else {
                                                            votes[8] += 1;
                                                        }
                                                    }
                                                }
                                            }
                                        }
                                    }
                                }
                            }
                        }

                        else {
                            if (x[7] <= 1004.3500061035156) {
                                if (x[8] <= 2001.7000122070312) {
                                    if (x[6] <= 9.01800012588501) {
                                        if (x[8] <= 108.0) {
                                            if (x[1] <= 4.5) {
                                                if (x[1] <= 3.5) {
                                                    if (x[7] <= 997.8999938964844) {
                                                        if (x[4] <= 21.449999809265137) {
                                                            votes[1] += 1;
                                                        }

                                                        else {
                                                            if (x[4] <= 28.039999961853027) {
                                                                if (x[4] <= 22.90499973297119) {
                                                                    votes[5] += 1;
                                                                }

                                                                else {
                                                                    if (x[7] <= 996.8999938964844) {
                                                                        votes[4] += 1;
                                                                    }

                                                                    else {
                                                                        if (x[6] <= 6.82200026512146) {
                                                                            if (x[4] <= 24.239999771118164) {
                                                                                votes[4] += 1;
                                                                            }

                                                                            else {
                                                                                votes[5] += 1;
                                                                            }
                                                                        }

                                                                        else {
                                                                            votes[4] += 1;
                                                                        }
                                                                    }
                                                                }
                                                            }

                                                            else {
                                                                votes[5] += 1;
                                                            }
                                                        }
                                                    }

                                                    else {
                                                        if (x[2] <= 13.5) {
                                                            if (x[1] <= 2.5) {
                                                                if (x[6] <= 2.8080000281333923) {
                                                                    votes[1] += 1;
                                                                }

                                                                else {
                                                                    votes[2] += 1;
                                                                }
                                                            }

                                                            else {
                                                                if (x[4] <= 19.640000343322754) {
                                                                    votes[1] += 1;
                                                                }

                                                                else {
                                                                    votes[4] += 1;
                                                                }
                                                            }
                                                        }

                                                        else {
                                                            if (x[1] <= 1.5) {
                                                                votes[1] += 1;
                                                            }

                                                            else {
                                                                if (x[4] <= 22.46500015258789) {
                                                                    if (x[8] <= 0.4000000059604645) {
                                                                        votes[1] += 1;
                                                                    }

                                                                    else {
                                                                        if (x[6] <= 3.7799999713897705) {
                                                                            if (x[5] <= 90.28000259399414) {
                                                                                votes[1] += 1;
                                                                            }

                                                                            else {
                                                                                if (x[6] <= 3.2039999961853027) {
                                                                                    votes[2] += 1;
                                                                                }

                                                                                else {
                                                                                    votes[1] += 1;
                                                                                }
                                                                            }
                                                                        }

                                                                        else {
                                                                            if (x[6] <= 7.667999982833862) {
                                                                                if (x[2] <= 17.0) {
                                                                                    if (x[4] <= 21.244999885559082) {
                                                                                        votes[2] += 1;
                                                                                    }

                                                                                    else {
                                                                                        votes[5] += 1;
                                                                                    }
                                                                                }

                                                                                else {
                                                                                    if (x[2] <= 20.0) {
                                                                                        if (x[6] <= 5.580000162124634) {
                                                                                            votes[1] += 1;
                                                                                        }

                                                                                        else {
                                                                                            if (x[8] <= 0.75) {
                                                                                                if (x[7] <= 999.9500122070312) {
                                                                                                    votes[2] += 1;
                                                                                                }

                                                                                                else {
                                                                                                    votes[5] += 1;
                                                                                                }
                                                                                            }

                                                                                            else {
                                                                                                votes[2] += 1;
                                                                                            }
                                                                                        }
                                                                                    }

                                                                                    else {
                                                                                        votes[2] += 1;
                                                                                    }
                                                                                }
                                                                            }

                                                                            else {
                                                                                votes[5] += 1;
                                                                            }
                                                                        }
                                                                    }
                                                                }

                                                                else {
                                                                    if (x[8] <= 0.550000011920929) {
                                                                        if (x[2] <= 25.0) {
                                                                            votes[5] += 1;
                                                                        }

                                                                        else {
                                                                            votes[4] += 1;
                                                                        }
                                                                    }

                                                                    else {
                                                                        votes[5] += 1;
                                                                    }
                                                                }
                                                            }
                                                        }
                                                    }
                                                }

                                                else {
                                                    if (x[7] <= 989.1999816894531) {
                                                        votes[7] += 1;
                                                    }

                                                    else {
                                                        if (x[6] <= 7.002000093460083) {
                                                            if (x[2] <= 28.5) {
                                                                if (x[6] <= 6.605999946594238) {
                                                                    if (x[5] <= 87.31000137329102) {
                                                                        votes[4] += 1;
                                                                    }

                                                                    else {
                                                                        if (x[2] <= 9.5) {
                                                                            if (x[2] <= 7.5) {
                                                                                votes[1] += 1;
                                                                            }

                                                                            else {
                                                                                if (x[4] <= 23.190000534057617) {
                                                                                    votes[2] += 1;
                                                                                }

                                                                                else {
                                                                                    votes[5] += 1;
                                                                                }
                                                                            }
                                                                        }

                                                                        else {
                                                                            if (x[4] <= 26.574999809265137) {
                                                                                if (x[7] <= 995.8500061035156) {
                                                                                    if (x[7] <= 993.5499877929688) {
                                                                                        if (x[8] <= 0.9000000059604645) {
                                                                                            votes[4] += 1;
                                                                                        }

                                                                                        else {
                                                                                            votes[5] += 1;
                                                                                        }
                                                                                    }

                                                                                    else {
                                                                                        if (x[2] <= 17.5) {
                                                                                            votes[5] += 1;
                                                                                        }

                                                                                        else {
                                                                                            votes[5] += 1;
                                                                                        }
                                                                                    }
                                                                                }

                                                                                else {
                                                                                    if (x[8] <= 0.550000011920929) {
                                                                                        votes[4] += 1;
                                                                                    }

                                                                                    else {
                                                                                        if (x[4] <= 24.280000686645508) {
                                                                                            votes[4] += 1;
                                                                                        }

                                                                                        else {
                                                                                            if (x[5] <= 93.5) {
                                                                                                votes[4] += 1;
                                                                                            }

                                                                                            else {
                                                                                                votes[5] += 1;
                                                                                            }
                                                                                        }
                                                                                    }
                                                                                }
                                                                            }

                                                                            else {
                                                                                if (x[8] <= 0.550000011920929) {
                                                                                    if (x[0] <= 2023.5) {
                                                                                        votes[4] += 1;
                                                                                    }

                                                                                    else {
                                                                                        votes[5] += 1;
                                                                                    }
                                                                                }

                                                                                else {
                                                                                    votes[5] += 1;
                                                                                }
                                                                            }
                                                                        }
                                                                    }
                                                                }

                                                                else {
                                                                    if (x[5] <= 96.30999755859375) {
                                                                        if (x[3] <= 10.0) {
                                                                            votes[5] += 1;
                                                                        }

                                                                        else {
                                                                            votes[4] += 1;
                                                                        }
                                                                    }

                                                                    else {
                                                                        if (x[4] <= 24.25) {
                                                                            votes[2] += 1;
                                                                        }

                                                                        else {
                                                                            votes[5] += 1;
                                                                        }
                                                                    }
                                                                }
                                                            }

                                                            else {
                                                                if (x[8] <= 0.75) {
                                                                    votes[8] += 1;
                                                                }

                                                                else {
                                                                    votes[6] += 1;
                                                                }
                                                            }
                                                        }

                                                        else {
                                                            if (x[6] <= 8.26200008392334) {
                                                                if (x[4] <= 28.93000030517578) {
                                                                    if (x[8] <= 0.7999999821186066) {
                                                                        votes[5] += 1;
                                                                    }

                                                                    else {
                                                                        if (x[4] <= 27.105000495910645) {
                                                                            votes[4] += 1;
                                                                        }

                                                                        else {
                                                                            votes[5] += 1;
                                                                        }
                                                                    }
                                                                }

                                                                else {
                                                                    votes[8] += 1;
                                                                }
                                                            }

                                                            else {
                                                                votes[5] += 1;
                                                            }
                                                        }
                                                    }
                                                }
                                            }

                                            else {
                                                if (x[8] <= 0.45000000298023224) {
                                                    if (x[4] <= 27.90999984741211) {
                                                        if (x[1] <= 9.5) {
                                                            if (x[8] <= 0.15000000223517418) {
                                                                votes[4] += 1;
                                                            }

                                                            else {
                                                                if (x[8] <= 0.2500000074505806) {
                                                                    if (x[4] <= 27.1850004196167) {
                                                                        votes[4] += 1;
                                                                    }

                                                                    else {
                                                                        votes[6] += 1;
                                                                    }
                                                                }

                                                                else {
                                                                    if (x[1] <= 5.5) {
                                                                        votes[4] += 1;
                                                                    }

                                                                    else {
                                                                        if (x[2] <= 10.5) {
                                                                            votes[4] += 1;
                                                                        }

                                                                        else {
                                                                            if (x[7] <= 991.3999938964844) {
                                                                                votes[6] += 1;
                                                                            }

                                                                            else {
                                                                                votes[6] += 1;
                                                                            }
                                                                        }
                                                                    }
                                                                }
                                                            }
                                                        }

                                                        else {
                                                            if (x[8] <= 0.2500000074505806) {
                                                                votes[4] += 1;
                                                            }

                                                            else {
                                                                votes[4] += 1;
                                                            }
                                                        }
                                                    }

                                                    else {
                                                        if (x[2] <= 7.0) {
                                                            votes[7] += 1;
                                                        }

                                                        else {
                                                            if (x[5] <= 92.125) {
                                                                votes[7] += 1;
                                                            }

                                                            else {
                                                                if (x[4] <= 28.440000534057617) {
                                                                    votes[9] += 1;
                                                                }

                                                                else {
                                                                    if (x[5] <= 94.125) {
                                                                        votes[9] += 1;
                                                                    }

                                                                    else {
                                                                        votes[7] += 1;
                                                                    }
                                                                }
                                                            }
                                                        }
                                                    }
                                                }

                                                else {
                                                    if (x[5] <= 90.18500137329102) {
                                                        if (x[8] <= 71.1500015258789) {
                                                            if (x[3] <= 13.0) {
                                                                if (x[4] <= 29.295000076293945) {
                                                                    if (x[0] <= 2023.5) {
                                                                        if (x[6] <= 1.11599999666214) {
                                                                            votes[8] += 1;
                                                                        }

                                                                        else {
                                                                            votes[5] += 1;
                                                                        }
                                                                    }

                                                                    else {
                                                                        if (x[1] <= 6.0) {
                                                                            votes[8] += 1;
                                                                        }

                                                                        else {
                                                                            votes[7] += 1;
                                                                        }
                                                                    }
                                                                }

                                                                else {
                                                                    votes[9] += 1;
                                                                }
                                                            }

                                                            else {
                                                                if (x[7] <= 999.4500122070312) {
                                                                    if (x[8] <= 25.800000369548798) {
                                                                        if (x[5] <= 86.15999984741211) {
                                                                            votes[7] += 1;
                                                                        }

                                                                        else {
                                                                            if (x[6] <= 6.73199987411499) {
                                                                                if (x[4] <= 28.574999809265137) {
                                                                                    votes[7] += 1;
                                                                                }

                                                                                else {
                                                                                    votes[8] += 1;
                                                                                }
                                                                            }

                                                                            else {
                                                                                votes[5] += 1;
                                                                            }
                                                                        }
                                                                    }

                                                                    else {
                                                                        if (x[6] <= 1.9259999990463257) {
                                                                            if (x[4] <= 27.96500015258789) {
                                                                                votes[5] += 1;
                                                                            }

                                                                            else {
                                                                                if (x[6] <= 1.1159999668598175) {
                                                                                    votes[8] += 1;
                                                                                }

                                                                                else {
                                                                                    votes[8] += 1;
                                                                                }
                                                                            }
                                                                        }

                                                                        else {
                                                                            votes[8] += 1;
                                                                        }
                                                                    }
                                                                }

                                                                else {
                                                                    if (x[2] <= 20.5) {
                                                                        votes[5] += 1;
                                                                    }

                                                                    else {
                                                                        votes[4] += 1;
                                                                    }
                                                                }
                                                            }
                                                        }

                                                        else {
                                                            if (x[4] <= 28.744999885559082) {
                                                                if (x[8] <= 96.1500015258789) {
                                                                    if (x[2] <= 12.0) {
                                                                        votes[4] += 1;
                                                                    }

                                                                    else {
                                                                        votes[4] += 1;
                                                                    }
                                                                }

                                                                else {
                                                                    votes[6] += 1;
                                                                }
                                                            }

                                                            else {
                                                                if (x[5] <= 70.65500259399414) {
                                                                    votes[7] += 1;
                                                                }

                                                                else {
                                                                    votes[7] += 1;
                                                                }
                                                            }
                                                        }
                                                    }

                                                    else {
                                                        if (x[8] <= 15.899999618530273) {
                                                            if (x[0] <= 2023.5) {
                                                                if (x[4] <= 27.994999885559082) {
                                                                    if (x[1] <= 9.5) {
                                                                        if (x[8] <= 0.550000011920929) {
                                                                            if (x[7] <= 993.2000122070312) {
                                                                                votes[6] += 1;
                                                                            }

                                                                            else {
                                                                                if (x[6] <= 2.916000008583069) {
                                                                                    if (x[2] <= 22.0) {
                                                                                        votes[5] += 1;
                                                                                    }

                                                                                    else {
                                                                                        votes[4] += 1;
                                                                                    }
                                                                                }

                                                                                else {
                                                                                    votes[5] += 1;
                                                                                }
                                                                            }
                                                                        }

                                                                        else {
                                                                            if (x[7] <= 994.2000122070312) {
                                                                                if (x[8] <= 0.75) {
                                                                                    if (x[4] <= 27.164999961853027) {
                                                                                        if (x[5] <= 94.43499755859375) {
                                                                                            if (x[4] <= 27.074999809265137) {
                                                                                                votes[5] += 1;
                                                                                            }

                                                                                            else {
                                                                                                votes[0] += 1;
                                                                                            }
                                                                                        }

                                                                                        else {
                                                                                            votes[5] += 1;
                                                                                        }
                                                                                    }

                                                                                    else {
                                                                                        if (x[8] <= 0.6500000059604645) {
                                                                                            votes[5] += 1;
                                                                                        }

                                                                                        else {
                                                                                            votes[5] += 1;
                                                                                        }
                                                                                    }
                                                                                }

                                                                                else {
                                                                                    if (x[5] <= 96.84000015258789) {
                                                                                        if (x[4] <= 27.050000190734863) {
                                                                                            votes[5] += 1;
                                                                                        }

                                                                                        else {
                                                                                            if (x[4] <= 27.760000228881836) {
                                                                                                if (x[4] <= 27.675000190734863) {
                                                                                                    votes[4] += 1;
                                                                                                }

                                                                                                else {
                                                                                                    votes[5] += 1;
                                                                                                }
                                                                                            }

                                                                                            else {
                                                                                                votes[4] += 1;
                                                                                            }
                                                                                        }
                                                                                    }

                                                                                    else {
                                                                                        votes[5] += 1;
                                                                                    }
                                                                                }
                                                                            }

                                                                            else {
                                                                                if (x[2] <= 29.5) {
                                                                                    if (x[5] <= 95.72000122070312) {
                                                                                        if (x[4] <= 26.844999313354492) {
                                                                                            votes[5] += 1;
                                                                                        }

                                                                                        else {
                                                                                            if (x[2] <= 15.5) {
                                                                                                votes[5] += 1;
                                                                                            }

                                                                                            else {
                                                                                                if (x[4] <= 27.585000038146973) {
                                                                                                    votes[4] += 1;
                                                                                                }

                                                                                                else {
                                                                                                    votes[5] += 1;
                                                                                                }
                                                                                            }
                                                                                        }
                                                                                    }

                                                                                    else {
                                                                                        votes[5] += 1;
                                                                                    }
                                                                                }

                                                                                else {
                                                                                    if (x[5] <= 98.19000244140625) {
                                                                                        votes[5] += 1;
                                                                                    }

                                                                                    else {
                                                                                        votes[4] += 1;
                                                                                    }
                                                                                }
                                                                            }
                                                                        }
                                                                    }

                                                                    else {
                                                                        if (x[6] <= 2.447999954223633) {
                                                                            if (x[2] <= 18.5) {
                                                                                votes[1] += 1;
                                                                            }

                                                                            else {
                                                                                votes[5] += 1;
                                                                            }
                                                                        }

                                                                        else {
                                                                            if (x[2] <= 13.5) {
                                                                                if (x[7] <= 1001.4500122070312) {
                                                                                    votes[5] += 1;
                                                                                }

                                                                                else {
                                                                                    if (x[1] <= 11.5) {
                                                                                        if (x[6] <= 2.646000027656555) {
                                                                                            votes[5] += 1;
                                                                                        }

                                                                                        else {
                                                                                            votes[4] += 1;
                                                                                        }
                                                                                    }

                                                                                    else {
                                                                                        votes[5] += 1;
                                                                                    }
                                                                                }
                                                                            }

                                                                            else {
                                                                                if (x[5] <= 97.25) {
                                                                                    votes[4] += 1;
                                                                                }

                                                                                else {
                                                                                    if (x[6] <= 2.916000008583069) {
                                                                                        votes[5] += 1;
                                                                                    }

                                                                                    else {
                                                                                        votes[4] += 1;
                                                                                    }
                                                                                }
                                                                            }
                                                                        }
                                                                    }
                                                                }

                                                                else {
                                                                    if (x[8] <= 0.550000011920929) {
                                                                        if (x[5] <= 95.34500122070312) {
                                                                            votes[8] += 1;
                                                                        }

                                                                        else {
                                                                            votes[9] += 1;
                                                                        }
                                                                    }

                                                                    else {
                                                                        if (x[1] <= 5.5) {
                                                                            votes[7] += 1;
                                                                        }

                                                                        else {
                                                                            if (x[8] <= 0.8499999940395355) {
                                                                                votes[8] += 1;
                                                                            }

                                                                            else {
                                                                                votes[5] += 1;
                                                                            }
                                                                        }
                                                                    }
                                                                }
                                                            }

                                                            else {
                                                                if (x[7] <= 990.6000061035156) {
                                                                    if (x[5] <= 97.25) {
                                                                        if (x[8] <= 0.8499999940395355) {
                                                                            votes[8] += 1;
                                                                        }

                                                                        else {
                                                                            votes[5] += 1;
                                                                        }
                                                                    }

                                                                    else {
                                                                        if (x[8] <= 0.6500000059604645) {
                                                                            votes[8] += 1;
                                                                        }

                                                                        else {
                                                                            votes[6] += 1;
                                                                        }
                                                                    }
                                                                }

                                                                else {
                                                                    if (x[4] <= 28.0049991607666) {
                                                                        if (x[8] <= 0.550000011920929) {
                                                                            if (x[3] <= 12.0) {
                                                                                if (x[4] <= 26.864999771118164) {
                                                                                    votes[5] += 1;
                                                                                }

                                                                                else {
                                                                                    if (x[2] <= 10.0) {
